{"type":"LSTMTimeStep","options":{"inputSize":1,"hiddenLayers":[20],"outputSize":1,"decayRate":0.999,"smoothEps":1e-8,"regc":0.000001,"clipval":5},"hiddenLayers":[{"inputMatrix":{"rows":20,"columns":1,"weights":{"0":-0.1019555851817131,"1":-1.8501348495483398,"2":-0.08707338571548462,"3":0.21975602209568024,"4":-0.5760137438774109,"5":-0.4893002510070801,"6":-0.5142617225646973,"7":-1.0699658393859863,"8":-0.3411163091659546,"9":0.762669026851654,"10":0.5374112725257874,"11":0.147847518324852,"12":-1.700687050819397,"13":0.330403596162796,"14":-2.7338626384735107,"15":-1.4720467329025269,"16":0.1674543023109436,"17":-0.05885788053274155,"18":-1.8047223091125488,"19":-3.8195559978485107}},"inputHidden":{"rows":20,"columns":20,"weights":{"0":0.2399713397026062,"1":0.4821964502334595,"2":0.3153476119041443,"3":-0.07172378152608871,"4":-0.3200436234474182,"5":-0.27656009793281555,"6":0.04992762580513954,"7":1.08806574344635,"8":0.1430492401123047,"9":0.9358981251716614,"10":-0.08618585020303726,"11":-0.360231876373291,"12":-0.6320309042930603,"13":0.6892456412315369,"14":0.3250572979450226,"15":0.10381041467189789,"16":0.18470780551433563,"17":0.002803829964250326,"18":0.7035955786705017,"19":-0.1239544227719307,"20":-1.615851640701294,"21":-0.523881733417511,"22":0.9760646820068359,"23":-0.48938530683517456,"24":0.5283734798431396,"25":-1.7882598638534546,"26":1.3767033815383911,"27":-0.16652703285217285,"28":0.10449543595314026,"29":-0.5211239457130432,"30":-2.3026132583618164,"31":-0.9772952795028687,"32":-1.07217276096344,"33":-0.2237890660762787,"34":-0.009576198644936085,"35":-1.2070331573486328,"36":-0.17454032599925995,"37":1.638569951057434,"38":0.4131156802177429,"39":-0.9110985994338989,"40":-0.3998654782772064,"41":-1.06975257396698,"42":-1.3115321397781372,"43":-0.3843664228916168,"44":1.6679538488388062,"45":0.4986843764781952,"46":0.761382520198822,"47":-2.432157278060913,"48":1.0878548622131348,"49":-2.190298557281494,"50":0.06955711543560028,"51":-0.46646320819854736,"52":0.13184282183647156,"53":-1.6635403633117676,"54":0.13012561202049255,"55":-0.2064516842365265,"56":-0.39766332507133484,"57":1.2815443277359009,"58":0.16085509955883026,"59":-1.2475543022155762,"60":-3.3566973209381104,"61":-0.28321072459220886,"62":-0.11213861405849457,"63":-0.39057281613349915,"64":0.9194285273551941,"65":-4.0227155685424805,"66":3.4790542125701904,"67":-0.3967039883136749,"68":0.15866534411907196,"69":-0.11677656322717667,"70":-2.917649745941162,"71":-1.2556493282318115,"72":-2.425581693649292,"73":-1.0585435628890991,"74":-0.2239404171705246,"75":-1.2337398529052734,"76":1.5547219514846802,"77":4.2795562744140625,"78":0.3422265350818634,"79":-0.09646043181419373,"80":-0.10621493309736252,"81":-1.0780147314071655,"82":0.3709961771965027,"83":-1.43985915184021,"84":-0.2869355380535126,"85":-1.0343564748764038,"86":1.1136592626571655,"87":-0.2991064190864563,"88":-0.06424308568239212,"89":-1.4069151878356934,"90":-0.014984987676143646,"91":1.5060964822769165,"92":-1.303107738494873,"93":-2.323690414428711,"94":0.06762281060218811,"95":-1.921983003616333,"96":1.3249449729919434,"97":0.5061543583869934,"98":0.005482855252921581,"99":1.3233814239501953,"100":-0.9687455296516418,"101":-0.7643975019454956,"102":-0.257453054189682,"103":1.3054271936416626,"104":-0.10498346388339996,"105":-0.6019955277442932,"106":1.0678606033325195,"107":0.6418936252593994,"108":0.26008057594299316,"109":0.7587684392929077,"110":-0.3209112882614136,"111":-0.8671361804008484,"112":-2.2401890754699707,"113":0.678425133228302,"114":1.777260184288025,"115":0.6778345704078674,"116":0.14494465291500092,"117":1.0788990259170532,"118":0.746296763420105,"119":-1.016680121421814,"120":-0.8313028216362,"121":-0.2833572328090668,"122":0.39873600006103516,"123":-0.17289337515830994,"124":0.3487356901168823,"125":0.5672125816345215,"126":0.9172260165214539,"127":0.33748310804367065,"128":0.48021745681762695,"129":-0.946325957775116,"130":-0.43499335646629333,"131":-0.14849714934825897,"132":-0.32287439703941345,"133":-0.13507434725761414,"134":0.8225943446159363,"135":-0.19196118414402008,"136":1.7993003129959106,"137":0.17232131958007812,"138":0.873163104057312,"139":0.3992847800254822,"140":-2.3433117866516113,"141":-1.4603289365768433,"142":0.8330641388893127,"143":-1.207607626914978,"144":-0.9240793585777283,"145":-2.316648483276367,"146":1.6810944080352783,"147":2.1614723205566406,"148":1.8024752140045166,"149":-0.9733816385269165,"150":-1.9738725423812866,"151":-1.7244305610656738,"152":-0.6022452712059021,"153":-0.7977893948554993,"154":-1.411868691444397,"155":-2.0605275630950928,"156":0.10474225878715515,"157":2.1323747634887695,"158":1.390409231185913,"159":0.5488538146018982,"160":0.3522549271583557,"161":-0.4266212284564972,"162":0.9083910584449768,"163":1.0087140798568726,"164":-0.9176353216171265,"165":-0.3104453980922699,"166":0.22511152923107147,"167":-1.7963229417800903,"168":-1.2251545190811157,"169":-1.4422180652618408,"170":-0.12663498520851135,"171":0.6293679475784302,"172":-1.981120228767395,"173":-0.7361089587211609,"174":1.2760987281799316,"175":0.2642664909362793,"176":0.7491341233253479,"177":0.47631943225860596,"178":0.522373616695404,"179":1.4909701347351074,"180":-1.8530595302581787,"181":0.3317444622516632,"182":1.0137217044830322,"183":-0.31917744874954224,"184":0.028609003871679306,"185":-2.4957990646362305,"186":1.945425033569336,"187":-0.7112250924110413,"188":-0.38999998569488525,"189":-0.14109820127487183,"190":-0.9544479846954346,"191":0.13874073326587677,"192":0.7294674515724182,"193":-0.7604830861091614,"194":-3.2769699096679688,"195":0.12195014208555222,"196":1.3370954990386963,"197":1.9692301750183105,"198":0.5369746685028076,"199":1.160938024520874,"200":0.6508172154426575,"201":-0.8729349374771118,"202":0.4947759509086609,"203":-0.809556245803833,"204":-0.46864503622055054,"205":-0.37011438608169556,"206":-0.46149030327796936,"207":1.2669131755828857,"208":-0.7971046566963196,"209":-0.016796087846159935,"210":0.220942422747612,"211":-0.16918306052684784,"212":-0.2279735952615738,"213":0.2030453383922577,"214":-0.8784085512161255,"215":-0.42778220772743225,"216":1.8243834972381592,"217":-0.5114412307739258,"218":0.36864373087882996,"219":0.8525118231773376,"220":0.18434619903564453,"221":-3.625166177749634,"222":0.14060594141483307,"223":-0.6537746787071228,"224":0.09062362462282181,"225":-0.6783820390701294,"226":0.25205326080322266,"227":1.1656080484390259,"228":-0.42440974712371826,"229":0.2751995027065277,"230":0.3460298180580139,"231":0.49067631363868713,"232":0.022052347660064697,"233":-1.0018281936645508,"234":0.005875582806766033,"235":-0.6304367184638977,"236":0.5390602946281433,"237":-0.22186490893363953,"238":-0.672309398651123,"239":-0.16292838752269745,"240":-0.35601329803466797,"241":0.013442004099488258,"242":-0.4982529580593109,"243":-0.619519054889679,"244":-0.11557874828577042,"245":-0.9150350689888,"246":1.0414568185806274,"247":-0.3467625677585602,"248":1.3401581048965454,"249":0.32985296845436096,"250":0.3085242807865143,"251":0.9601314067840576,"252":0.15879932045936584,"253":-1.0465419292449951,"254":0.2678627669811249,"255":-0.7062307000160217,"256":0.8800251483917236,"257":-1.1019904613494873,"258":-0.6596531867980957,"259":0.2017182856798172,"260":-0.9967844486236572,"261":0.44777023792266846,"262":1.0616556406021118,"263":-0.5927157402038574,"264":0.5244132280349731,"265":-1.6665946245193481,"266":1.0788440704345703,"267":-0.5102859139442444,"268":0.177948996424675,"269":0.6893846988677979,"270":-0.684396505355835,"271":-0.9166200160980225,"272":1.5295028686523438,"273":0.1931951344013214,"274":0.13828419148921967,"275":-0.3778209388256073,"276":1.0809322595596313,"277":1.1709628105163574,"278":1.365924596786499,"279":-0.3199878931045532,"280":-0.18647396564483643,"281":0.7165153622627258,"282":1.3516526222229004,"283":-1.3670943975448608,"284":0.838534951210022,"285":-1.6090878248214722,"286":1.212668538093567,"287":1.4967862367630005,"288":0.11805199086666107,"289":0.11204088479280472,"290":-0.5686189532279968,"291":-1.0886188745498657,"292":0.22329752147197723,"293":-0.23404774069786072,"294":0.7895033955574036,"295":-0.36062684655189514,"296":0.6913038492202759,"297":0.42220738530158997,"298":0.8121786713600159,"299":-1.0618095397949219,"300":-0.06634216755628586,"301":-0.39025455713272095,"302":-0.9336289167404175,"303":-1.2554270029067993,"304":1.2329281568527222,"305":-2.3641748428344727,"306":1.701879858970642,"307":-1.4917024374008179,"308":-0.3492511510848999,"309":-0.3043244481086731,"310":0.6136903762817383,"311":1.2157093286514282,"312":-0.6220709681510925,"313":-1.7178950309753418,"314":-1.0177186727523804,"315":-1.7309967279434204,"316":0.6590107679367065,"317":-0.5201758146286011,"318":-1.3318966627120972,"319":0.767798125743866,"320":-0.41162723302841187,"321":0.9566202759742737,"322":0.6659349799156189,"323":0.5407602190971375,"324":-0.3659878969192505,"325":-0.09029222279787064,"326":0.3354628086090088,"327":-0.10737434029579163,"328":-0.7828502058982849,"329":-0.11463230103254318,"330":-0.5852509140968323,"331":-0.9882498383522034,"332":0.26770254969596863,"333":0.07099822163581848,"334":0.31156426668167114,"335":-0.3190068304538727,"336":1.0836734771728516,"337":-0.15970154106616974,"338":0.6203833222389221,"339":-0.5073119401931763,"340":0.5407162308692932,"341":-0.27627378702163696,"342":0.4614342749118805,"343":0.3225434124469757,"344":-0.41994908452033997,"345":-0.027477387338876724,"346":-0.3889211416244507,"347":0.49332863092422485,"348":1.9127665758132935,"349":0.46557560563087463,"350":0.4308021366596222,"351":0.26456525921821594,"352":0.5368015170097351,"353":1.438962697982788,"354":-0.5890669226646423,"355":1.996531367301941,"356":0.8229789733886719,"357":-0.23291370272636414,"358":0.6927682161331177,"359":0.41095128655433655,"360":-0.5579387545585632,"361":-0.4809333384037018,"362":-0.8116808533668518,"363":-0.5403234362602234,"364":0.8432902693748474,"365":-0.3092491626739502,"366":0.06956492364406586,"367":-0.21879813075065613,"368":-0.7496352791786194,"369":0.7191666960716248,"370":-0.712734043598175,"371":-0.5655761361122131,"372":-0.5874236226081848,"373":-1.2093544006347656,"374":-0.4865054488182068,"375":-0.28122809529304504,"376":-1.2299610376358032,"377":0.4315792918205261,"378":-0.7257283926010132,"379":0.9072846174240112,"380":-1.2998900413513184,"381":-1.2562174797058105,"382":0.4926685392856598,"383":-1.5458163022994995,"384":-0.07419734448194504,"385":-2.1947948932647705,"386":1.8440098762512207,"387":0.5529805421829224,"388":0.10528520494699478,"389":0.7139475345611572,"390":-1.419726014137268,"391":-0.8357105255126953,"392":-2.8325536251068115,"393":-1.6864036321640015,"394":0.37896159291267395,"395":-0.8518984913825989,"396":0.6431499719619751,"397":0.6931438446044922,"398":-0.03914004936814308,"399":0.6400235891342163}},"inputBias":{"rows":20,"columns":1,"weights":{"0":-0.7841290235519409,"1":3.492034912109375,"2":3.9561405181884766,"3":6.167392253875732,"4":3.0308518409729004,"5":2.015756607055664,"6":3.0225796699523926,"7":2.8851983547210693,"8":0.6526604890823364,"9":4.871527671813965,"10":-0.8809815645217896,"11":0.9086597561836243,"12":2.6274399757385254,"13":5.39480447769165,"14":2.2326807975769043,"15":3.6631903648376465,"16":1.7283012866973877,"17":0.5186912417411804,"18":3.069516181945801,"19":2.055928945541382}},"forgetMatrix":{"rows":20,"columns":1,"weights":{"0":0.37054386734962463,"1":2.31762957572937,"2":-1.404941439628601,"3":0.14738436043262482,"4":-0.11453569680452347,"5":-0.38613247871398926,"6":0.7584981322288513,"7":1.9081337451934814,"8":0.1061120480298996,"9":0.5547401309013367,"10":0.4954468905925751,"11":0.9190552234649658,"12":0.14233601093292236,"13":-0.3814930319786072,"14":-2.2561068534851074,"15":-2.2080771923065186,"16":-2.0346763134002686,"17":0.1039106473326683,"18":-0.9293856024742126,"19":0.1277456134557724}},"forgetHidden":{"rows":20,"columns":20,"weights":{"0":0.09841824322938919,"1":1.7148362398147583,"2":0.9118021130561829,"3":0.15643472969532013,"4":-0.6296995878219604,"5":0.31867724657058716,"6":-0.8139954805374146,"7":0.6793738007545471,"8":0.24167810380458832,"9":1.2697482109069824,"10":-0.41225484013557434,"11":-0.8916764259338379,"12":-0.15547916293144226,"13":1.4078561067581177,"14":0.5998008847236633,"15":-0.032681044191122055,"16":-0.6161910891532898,"17":-0.010369482450187206,"18":1.0297589302062988,"19":-0.14258791506290436,"20":-1.4404752254486084,"21":0.6979493498802185,"22":1.2628413438796997,"23":1.5132486820220947,"24":0.6816620230674744,"25":-0.4455055892467499,"26":0.39558085799217224,"27":-2.211777448654175,"28":0.8905892968177795,"29":-0.44589418172836304,"30":-2.9020607471466064,"31":-1.5806434154510498,"32":-2.3044936656951904,"33":0.6101648211479187,"34":1.3760534524917603,"35":-0.11040295660495758,"36":-1.2214443683624268,"37":2.2369544506073,"38":0.9036458730697632,"39":-0.6892764568328857,"40":-1.0451669692993164,"41":-2.6611173152923584,"42":-1.0441900491714478,"43":-1.1244182586669922,"44":0.5472055673599243,"45":-1.4530706405639648,"46":1.9396368265151978,"47":0.1757599413394928,"48":0.6843484044075012,"49":-1.0323790311813354,"50":-0.3044750392436981,"51":-0.6095333099365234,"52":-1.6031006574630737,"53":-1.565743327140808,"54":-0.14798325300216675,"55":-1.4079734086990356,"56":-0.9182930588722229,"57":1.0364454984664917,"58":-0.5267705321311951,"59":-0.32598188519477844,"60":-0.2430638074874878,"61":-0.5262231230735779,"62":0.6223835349082947,"63":-0.30321165919303894,"64":1.8883267641067505,"65":-2.1719837188720703,"66":0.823121964931488,"67":-0.045092180371284485,"68":-0.5184845328330994,"69":-0.5944533348083496,"70":-0.3805263340473175,"71":-1.1791203022003174,"72":-0.402942955493927,"73":0.5668920874595642,"74":1.0700368881225586,"75":0.13863728940486908,"76":-0.3260698616504669,"77":1.6356302499771118,"78":1.5258305072784424,"79":-0.5231991410255432,"80":-1.1763986349105835,"81":-0.8239087462425232,"82":1.6001436710357666,"83":-0.25630584359169006,"84":-0.5657101273536682,"85":-1.1893559694290161,"86":0.1678897887468338,"87":-0.24274888634681702,"88":1.684822678565979,"89":2.149139165878296,"90":0.6578149199485779,"91":1.096189022064209,"92":1.3879190683364868,"93":-0.39526548981666565,"94":0.4643361568450928,"95":1.797766923904419,"96":-1.7027679681777954,"97":0.9892830848693848,"98":1.6984413862228394,"99":-1.2357637882232666,"100":-0.024109482765197754,"101":-1.1425716876983643,"102":0.4565470516681671,"103":0.9543872475624084,"104":0.31689363718032837,"105":-0.6577526330947876,"106":0.07273507863283157,"107":-0.05483487620949745,"108":-0.18453635275363922,"109":1.2385295629501343,"110":0.23426494002342224,"111":-0.6125163435935974,"112":-2.5237374305725098,"113":0.6736801266670227,"114":1.7322428226470947,"115":0.23443372547626495,"116":-0.6693416237831116,"117":-0.0034972322173416615,"118":-0.09184374660253525,"119":-0.09057480841875076,"120":-0.8922494649887085,"121":0.3071371912956238,"122":0.13290077447891235,"123":0.17758193612098694,"124":-0.6995053291320801,"125":-0.4605922996997833,"126":0.17196297645568848,"127":-0.16326949000358582,"128":0.8459876775741577,"129":0.42007631063461304,"130":-1.768836498260498,"131":-0.5799058079719543,"132":-0.8743240237236023,"133":0.23290275037288666,"134":0.5826606154441833,"135":-0.5103151202201843,"136":1.7782917022705078,"137":-0.21545188128948212,"138":-0.5724166035652161,"139":0.4771035611629486,"140":-0.16124741733074188,"141":1.2169363498687744,"142":1.2178165912628174,"143":0.6843668222427368,"144":0.3472291827201843,"145":-1.0177708864212036,"146":0.45228707790374756,"147":-1.381015419960022,"148":0.05870506539940834,"149":0.8242367506027222,"150":-0.47802889347076416,"151":-1.6528047323226929,"152":-0.21891792118549347,"153":0.5663890242576599,"154":1.3739097118377686,"155":-0.42542144656181335,"156":-0.9896222949028015,"157":1.7053414583206177,"158":1.4737979173660278,"159":-1.7273343801498413,"160":-0.2486475110054016,"161":-0.0918160080909729,"162":0.7627326250076294,"163":-1.983669400215149,"164":3.7485194206237793,"165":-1.4950640201568604,"166":0.146946519613266,"167":-0.3554513156414032,"168":-0.6277714967727661,"169":1.3702627420425415,"170":-1.5598130226135254,"171":-2.600092649459839,"172":-1.5942554473876953,"173":1.2900594472885132,"174":5.122852802276611,"175":-2.8093528747558594,"176":-0.36039721965789795,"177":-1.8250764608383179,"178":-0.501727819442749,"179":-3.5207252502441406,"180":0.16889715194702148,"181":-0.22659429907798767,"182":1.368679165840149,"183":-2.4912526607513428,"184":0.10148557275533676,"185":-1.9932975769042969,"186":-0.11711665987968445,"187":0.3967367112636566,"188":2.3610079288482666,"189":-2.2663114070892334,"190":-1.3573126792907715,"191":-1.5112497806549072,"192":-0.40767350792884827,"193":0.772413432598114,"194":2.17775559425354,"195":0.7283109426498413,"196":-0.772180438041687,"197":-0.26693952083587646,"198":2.5657734870910645,"199":2.4815309047698975,"200":-0.09332933276891708,"201":-0.4685538411140442,"202":0.4954666495323181,"203":-0.40561264753341675,"204":0.10320542007684708,"205":-0.5209193229675293,"206":-0.33125022053718567,"207":0.8818725943565369,"208":-0.17458702623844147,"209":0.005765882786363363,"210":-0.04935657978057861,"211":-0.5190054774284363,"212":-0.1665072739124298,"213":0.8113423585891724,"214":-0.8029982447624207,"215":-0.2502305209636688,"216":-0.10677892714738846,"217":0.03747167810797691,"218":0.5299656987190247,"219":-0.5306474566459656,"220":-0.12460208684206009,"221":-0.9370458126068115,"222":0.4752744734287262,"223":-0.019589046016335487,"224":-0.06951315701007843,"225":-0.3300611972808838,"226":-0.6993185877799988,"227":0.27359962463378906,"228":2.4227442741394043,"229":-0.6238213181495667,"230":0.041306525468826294,"231":-0.4473782479763031,"232":1.1718870401382446,"233":0.7645809054374695,"234":-0.026137394830584526,"235":0.38875240087509155,"236":-0.545332133769989,"237":0.253288209438324,"238":0.8744714856147766,"239":-0.9439630508422852,"240":-0.10380945354700089,"241":1.267400860786438,"242":-0.6430108547210693,"243":-0.431936651468277,"244":-2.7244346141815186,"245":0.3204393684864044,"246":0.2595185935497284,"247":-1.1718249320983887,"248":0.9489536285400391,"249":0.5018252730369568,"250":0.5708893537521362,"251":1.4259350299835205,"252":-0.3634817600250244,"253":-0.9096471071243286,"254":-0.8758917450904846,"255":-0.9615961909294128,"256":2.459716320037842,"257":-0.6007476449012756,"258":-0.6510921716690063,"259":1.4040935039520264,"260":-0.8356924653053284,"261":0.22798699140548706,"262":-0.33406585454940796,"263":-1.2471567392349243,"264":0.8329440951347351,"265":-2.277111291885376,"266":2.490124464035034,"267":-0.283356249332428,"268":0.07334613054990768,"269":0.36537984013557434,"270":0.9017159342765808,"271":1.4498087167739868,"272":-0.9293078184127808,"273":-0.37741369009017944,"274":-0.1715668886899948,"275":-0.15064044296741486,"276":-1.2124148607254028,"277":0.7643080353736877,"278":-0.031621865928173065,"279":1.0006561279296875,"280":1.2146340608596802,"281":0.7448837161064148,"282":1.4031362533569336,"283":-0.5675060153007507,"284":-1.1537214517593384,"285":0.15578365325927734,"286":-0.7161809206008911,"287":-0.748809278011322,"288":1.208789348602295,"289":0.03199853003025055,"290":0.8057743906974792,"291":-3.074779510498047,"292":2.366131067276001,"293":0.025838663801550865,"294":-1.2069860696792603,"295":1.1637979745864868,"296":2.105717897415161,"297":-0.03310414031147957,"298":1.7045601606369019,"299":2.0568578243255615,"300":-0.10101519525051117,"301":1.155564546585083,"302":-0.24846728146076202,"303":-0.8769341111183167,"304":0.44281822443008423,"305":-0.4899345338344574,"306":0.6191352009773254,"307":-0.0859946608543396,"308":1.0290871858596802,"309":0.3841535747051239,"310":-0.6206933259963989,"311":1.053633213043213,"312":-2.275782823562622,"313":-0.5508812665939331,"314":0.40286457538604736,"315":-0.6246984004974365,"316":-0.3483033776283264,"317":-0.6785497665405273,"318":-0.2524767518043518,"319":0.2982466518878937,"320":-1.123472809791565,"321":1.0182610750198364,"322":-0.16327141225337982,"323":0.1321514993906021,"324":0.9878344535827637,"325":-1.150895595550537,"326":1.4720990657806396,"327":0.1750798374414444,"328":-0.751807689666748,"329":-0.8425464630126953,"330":0.1843973994255066,"331":-0.41628605127334595,"332":0.11075539141893387,"333":-0.42956534028053284,"334":0.7664031982421875,"335":-1.0949970483779907,"336":-0.1310456395149231,"337":1.0581613779067993,"338":0.9061844944953918,"339":-0.4651128947734833,"340":0.06954678148031235,"341":-0.2762226462364197,"342":0.5622810125350952,"343":0.2707723081111908,"344":-0.22923985123634338,"345":-0.21606960892677307,"346":-0.1993965059518814,"347":0.948318362236023,"348":0.5636244416236877,"349":-0.7713651657104492,"350":-0.2268330156803131,"351":-0.6959695816040039,"352":0.3570486009120941,"353":1.2404216527938843,"354":1.09354829788208,"355":0.20577818155288696,"356":-0.5061361789703369,"357":-0.15566320717334747,"358":0.6801360249519348,"359":0.12517914175987244,"360":-1.07821786403656,"361":-1.9486124515533447,"362":-0.5667672157287598,"363":-0.9690823554992676,"364":-0.13006658852100372,"365":-1.0282344818115234,"366":1.015170931816101,"367":1.2455073595046997,"368":2.04947566986084,"369":-1.3922885656356812,"370":-0.9559416770935059,"371":-0.23621921241283417,"372":-0.8551735281944275,"373":-1.6257154941558838,"374":-1.1378862857818604,"375":-0.9233323335647583,"376":-0.34487345814704895,"377":1.0584690570831299,"378":-0.15300723910331726,"379":-0.5375747084617615,"380":-1.03885018825531,"381":-1.1448049545288086,"382":-0.3275753855705261,"383":-1.2119462490081787,"384":0.6091312766075134,"385":-1.2738378047943115,"386":0.9788111448287964,"387":-0.19053024053573608,"388":-0.9914169311523438,"389":-1.1393780708312988,"390":-0.5953919291496277,"391":-0.07310830801725388,"392":-0.5771546959877014,"393":-1.3159399032592773,"394":-0.4253797233104706,"395":-0.9101067781448364,"396":-0.03116649016737938,"397":0.7640841007232666,"398":-0.47063159942626953,"399":-0.6201736927032471}},"forgetBias":{"rows":20,"columns":1,"weights":{"0":0,"1":0,"2":0,"3":0,"4":0,"5":0,"6":0,"7":0,"8":0,"9":0,"10":0,"11":0,"12":0,"13":0,"14":0,"15":0,"16":0,"17":0,"18":0,"19":0}},"outputMatrix":{"rows":20,"columns":1,"weights":{"0":-0.07743722200393677,"1":0.3051259219646454,"2":-0.08604638278484344,"3":-0.2934364378452301,"4":-0.6272783279418945,"5":0.605131208896637,"6":0.6136016249656677,"7":0.11483767628669739,"8":-0.3222573697566986,"9":0.2056186944246292,"10":0.32772719860076904,"11":0.43372124433517456,"12":-1.377341628074646,"13":-0.9398788809776306,"14":-2.6274592876434326,"15":-1.4443550109863281,"16":0.11806084215641022,"17":-0.06321738660335541,"18":-0.5273471474647522,"19":-2.664327383041382}},"outputHidden":{"rows":20,"columns":20,"weights":{"0":0.548347532749176,"1":0.7308588624000549,"2":0.13530440628528595,"3":-0.09298491477966309,"4":0.10568305850028992,"5":0.7177785634994507,"6":-0.3808521330356598,"7":1.0741474628448486,"8":0.3695146441459656,"9":1.140921711921692,"10":0.21441294252872467,"11":-0.17184917628765106,"12":-0.1432424783706665,"13":0.7721338272094727,"14":0.507441520690918,"15":0.610845148563385,"16":0.554858386516571,"17":-0.446877658367157,"18":0.5617483258247375,"19":-0.6198833584785461,"20":-0.32706746459007263,"21":0.9805158376693726,"22":1.694885015487671,"23":0.5399095416069031,"24":-0.596576452255249,"25":-0.7680142521858215,"26":0.8449058532714844,"27":-0.9933301210403442,"28":0.31846800446510315,"29":1.2274240255355835,"30":-1.2637993097305298,"31":-1.768921971321106,"32":-0.6856119632720947,"33":1.0691580772399902,"34":0.27899518609046936,"35":0.008808811195194721,"36":0.6176663041114807,"37":1.1080679893493652,"38":1.5097730159759521,"39":-0.48098883032798767,"40":-0.5276228189468384,"41":-0.9208067655563354,"42":-1.0074230432510376,"43":-1.2872110605239868,"44":0.7512722015380859,"45":0.2871396541595459,"46":0.3016350269317627,"47":-1.3484666347503662,"48":1.3745182752609253,"49":-1.025542140007019,"50":-0.38599368929862976,"51":0.647555410861969,"52":-0.010490141808986664,"53":-1.0343115329742432,"54":-1.5917577743530273,"55":-1.2042986154556274,"56":0.9978659749031067,"57":0.54253089427948,"58":-0.5868467688560486,"59":-1.0276391506195068,"60":-3.169795513153076,"61":-0.560376763343811,"62":-0.32165980339050293,"63":-0.606634259223938,"64":0.8361366987228394,"65":-4.086655139923096,"66":3.13987135887146,"67":-0.07686708122491837,"68":-0.1543882042169571,"69":-0.16551868617534637,"70":-2.4144372940063477,"71":-1.6617463827133179,"72":-2.397167205810547,"73":-0.593176007270813,"74":0.3298536539077759,"75":-1.0278639793395996,"76":1.3668713569641113,"77":3.921206474304199,"78":0.3953799605369568,"79":-0.2770750820636749,"80":0.19854921102523804,"81":-1.1604701280593872,"82":0.6833944916725159,"83":-1.2724930047988892,"84":-1.0425962209701538,"85":-1.3660192489624023,"86":0.8844149112701416,"87":0.028550099581480026,"88":0.06667173653841019,"89":1.2913998365402222,"90":0.7928544878959656,"91":1.0099214315414429,"92":-0.789960503578186,"93":-1.5394216775894165,"94":-0.10953124612569809,"95":-1.321400761604309,"96":1.0918852090835571,"97":0.456239253282547,"98":0.6216623783111572,"99":-0.43081560730934143,"100":0.17059393227100372,"101":-0.7788909077644348,"102":-0.7865548133850098,"103":1.2374285459518433,"104":0.44697824120521545,"105":-0.31999415159225464,"106":0.4791518747806549,"107":-0.2959066331386566,"108":-0.5020225644111633,"109":0.29679349064826965,"110":0.6430386900901794,"111":-0.06448593735694885,"112":-1.0628033876419067,"113":0.520437479019165,"114":1.1006062030792236,"115":-0.45263686776161194,"116":-1.0788015127182007,"117":-0.009157323278486729,"118":-0.8589633107185364,"119":-0.5724704265594482,"120":-0.7608428597450256,"121":1.7657767534255981,"122":0.7202956080436707,"123":0.17744748294353485,"124":0.5469872951507568,"125":-0.027852008119225502,"126":0.42977696657180786,"127":-0.273748517036438,"128":2.011631727218628,"129":-0.3271808922290802,"130":-0.5206636190414429,"131":-0.9001246690750122,"132":0.4392535984516144,"133":0.6238932013511658,"134":-0.12626203894615173,"135":0.5816604495048523,"136":0.49444830417633057,"137":0.2500512897968292,"138":1.0348334312438965,"139":-0.054883092641830444,"140":-2.0214037895202637,"141":0.9817424416542053,"142":0.752002477645874,"143":0.3528018593788147,"144":-0.8084011673927307,"145":-1.3863615989685059,"146":1.2551335096359253,"147":-0.16010034084320068,"148":-0.1053633838891983,"149":-0.5469183921813965,"150":-1.9716318845748901,"151":-1.5421369075775146,"152":0.2642049193382263,"153":-0.17213664948940277,"154":-1.066638469696045,"155":-1.5446977615356445,"156":-1.6998244524002075,"157":2.3683722019195557,"158":1.1229392290115356,"159":-0.2673209011554718,"160":-0.13093292713165283,"161":-0.04714713618159294,"162":1.6481480598449707,"163":0.2295743227005005,"164":-1.0026419162750244,"165":-0.21786698698997498,"166":-0.8504016995429993,"167":-1.118546485900879,"168":-1.0384984016418457,"169":-1.2394092082977295,"170":-0.6218717694282532,"171":-1.1632106304168701,"172":-1.0307234525680542,"173":-0.09876815229654312,"174":2.1856095790863037,"175":-0.8831127882003784,"176":1.930022954940796,"177":0.15682923793792725,"178":0.8083178400993347,"179":0.6245374083518982,"180":-1.2826775312423706,"181":-0.5701863765716553,"182":1.1539723873138428,"183":-1.0580192804336548,"184":-0.5329194068908691,"185":-2.123713970184326,"186":1.634230375289917,"187":-0.5610578060150146,"188":1.5337027311325073,"189":-0.950416088104248,"190":-1.1439299583435059,"191":0.08500353991985321,"192":1.0916037559509277,"193":-0.9251564145088196,"194":-1.5871905088424683,"195":0.6891185641288757,"196":1.6815155744552612,"197":1.537171721458435,"198":0.9385004043579102,"199":0.5348098874092102,"200":0.732198178768158,"201":-1.0054322481155396,"202":-0.09016753733158112,"203":-0.7646608948707581,"204":0.15124766528606415,"205":0.039748258888721466,"206":-0.4463982582092285,"207":1.0315519571304321,"208":0.10828687995672226,"209":-0.5228444933891296,"210":0.5514593720436096,"211":0.03700019791722298,"212":-0.22854827344417572,"213":0.0021069636568427086,"214":-0.6222966909408569,"215":-0.20130111277103424,"216":1.8361655473709106,"217":-0.6447027325630188,"218":0.11497539281845093,"219":0.5817404389381409,"220":0.12678785622119904,"221":-2.89766263961792,"222":-0.2856517732143402,"223":-0.5982841849327087,"224":-0.1542883813381195,"225":0.07148437947034836,"226":-0.4653816521167755,"227":0.9508892297744751,"228":0.9663252830505371,"229":-0.8683456182479858,"230":0.6043045520782471,"231":0.7642074823379517,"232":0.966171145439148,"233":-0.4221900701522827,"234":0.197125643491745,"235":-0.6398129463195801,"236":0.2033533751964569,"237":-0.15233130753040314,"238":-0.30108919739723206,"239":-0.7386911511421204,"240":-0.29424580931663513,"241":0.2602161765098572,"242":-0.16961552202701569,"243":-0.5319671630859375,"244":-0.6961895227432251,"245":-0.9758979678153992,"246":0.7305055260658264,"247":-0.2540454864501953,"248":1.6764642000198364,"249":0.47921276092529297,"250":0.4740515947341919,"251":0.8700377345085144,"252":0.3966342508792877,"253":-0.7119462490081787,"254":0.10938435792922974,"255":-0.5294538736343384,"256":1.371355414390564,"257":-1.0650790929794312,"258":-0.5081850290298462,"259":1.0853209495544434,"260":-2.059638738632202,"261":-0.3543311655521393,"262":-0.013254550285637379,"263":-0.5295594334602356,"264":0.1222323328256607,"265":-2.5348644256591797,"266":1.3412221670150757,"267":0.2165447622537613,"268":1.13887619972229,"269":0.2329065501689911,"270":-2.426260232925415,"271":-2.564502239227295,"272":-0.31458353996276855,"273":-0.3760736286640167,"274":-0.6799129843711853,"275":-0.9723502993583679,"276":1.2289284467697144,"277":1.9673267602920532,"278":0.572516918182373,"279":0.44897720217704773,"280":0.264187753200531,"281":0.8952739834785461,"282":1.1877849102020264,"283":-1.0495880842208862,"284":-0.5053348541259766,"285":-1.3571146726608276,"286":0.592045783996582,"287":1.4030765295028687,"288":2.4341793060302734,"289":-0.95902019739151,"290":-0.7537901401519775,"291":-2.0917398929595947,"292":0.8426350951194763,"293":-0.19015896320343018,"294":0.6323265433311462,"295":0.39532408118247986,"296":1.4093245267868042,"297":0.19046242535114288,"298":1.430525779724121,"299":1.3194177150726318,"300":0.16032743453979492,"301":1.4170527458190918,"302":0.04909995198249817,"303":-1.4072169065475464,"304":-0.4462760388851166,"305":-1.4374560117721558,"306":0.10573607683181763,"307":-0.3342464864253998,"308":-0.6574772596359253,"309":-0.7935423254966736,"310":-0.06109342724084854,"311":-0.6884796619415283,"312":-0.1892525851726532,"313":0.27971988916397095,"314":-0.2314709722995758,"315":-0.9643462300300598,"316":0.2832898497581482,"317":-0.1954478919506073,"318":0.40966254472732544,"319":-0.14305561780929565,"320":-0.5050861239433289,"321":1.6857322454452515,"322":0.7929530739784241,"323":0.5750116109848022,"324":-0.4264538586139679,"325":-0.0521995984017849,"326":-0.0561123751103878,"327":-0.4867788851261139,"328":-1.2476588487625122,"329":0.39702510833740234,"330":-0.9241251945495605,"331":-1.636540174484253,"332":0.7913901805877686,"333":0.2457040250301361,"334":0.10748645663261414,"335":-0.5330368280410767,"336":1.1741145849227905,"337":0.05734400823712349,"338":0.501512885093689,"339":-0.012191832065582275,"340":0.40382400155067444,"341":-0.1268889307975769,"342":-0.1469527781009674,"343":0.28796911239624023,"344":-0.2531207799911499,"345":0.19674740731716156,"346":-0.11855669319629669,"347":0.7607622742652893,"348":1.8992979526519775,"349":0.4660091996192932,"350":0.4692215025424957,"351":0.021387634798884392,"352":-0.46474626660346985,"353":0.6020268201828003,"354":-1.014024019241333,"355":0.4961245059967041,"356":1.3849271535873413,"357":0.25252652168273926,"358":0.0699455738067627,"359":-0.3489342927932739,"360":-0.14068755507469177,"361":0.05581368878483772,"362":-0.45461615920066833,"363":-0.6092098355293274,"364":0.19121256470680237,"365":-0.15739431977272034,"366":-0.05968146771192551,"367":-0.04116139933466911,"368":-0.5034679770469666,"369":0.46068891882896423,"370":0.3026624023914337,"371":0.6545993685722351,"372":0.13699311017990112,"373":-0.5620295405387878,"374":-0.49845075607299805,"375":-0.13967753946781158,"376":-0.28679513931274414,"377":-0.06882566213607788,"378":-0.6308676600456238,"379":0.2414526343345642,"380":-1.4315935373306274,"381":-0.7019432783126831,"382":0.8368452191352844,"383":-1.5082006454467773,"384":0.1983533501625061,"385":-2.3440134525299072,"386":1.9179620742797852,"387":0.5382463932037354,"388":-0.06698931008577347,"389":0.941513180732727,"390":-1.5955919027328491,"391":-0.7531061768531799,"392":-2.756059408187866,"393":-1.147292137145996,"394":-0.009891601279377937,"395":-0.5726385712623596,"396":0.3929547369480133,"397":0.608718752861023,"398":0.1758362203836441,"399":0.56062251329422}},"outputBias":{"rows":20,"columns":1,"weights":{"0":-0.7606697678565979,"1":3.9491636753082275,"2":4.2821364402771,"3":6.422696113586426,"4":3.309034585952759,"5":2.26959228515625,"6":3.197369337081909,"7":3.379199743270874,"8":0.7741168737411499,"9":5.092651844024658,"10":-0.8189442753791809,"11":0.8931086659431458,"12":2.8622477054595947,"13":5.64148473739624,"14":2.606436014175415,"15":3.983910083770752,"16":1.9197090864181519,"17":0.4926850497722626,"18":3.322329044342041,"19":2.287912130355835}},"cellActivationMatrix":{"rows":20,"columns":1,"weights":{"0":0.5328863859176636,"1":-1.0247515439987183,"2":0.6108633875846863,"3":-0.20615580677986145,"4":0.2908798158168793,"5":-0.17505235970020294,"6":-0.5431050062179565,"7":1.4475010633468628,"8":-1.9253872632980347,"9":1.2607100009918213,"10":0.18857493996620178,"11":0.40181469917297363,"12":1.4715335369110107,"13":0.44586700201034546,"14":0.1943945735692978,"15":0.7160812020301819,"16":0.6312296390533447,"17":-1.0893900394439697,"18":-0.6502990126609802,"19":0.0636221170425415}},"cellActivationHidden":{"rows":20,"columns":20,"weights":{"0":0.3108566105365753,"1":0.08715136349201202,"2":-0.24035154283046722,"3":-0.3959621489048004,"4":0.3120863139629364,"5":-0.5277541279792786,"6":-0.13283973932266235,"7":-0.25518572330474854,"8":-0.5114348530769348,"9":0.5861126780509949,"10":0.3909734785556793,"11":0.48122426867485046,"12":0.24878576397895813,"13":0.5707682967185974,"14":0.411455363035202,"15":-0.2698614001274109,"16":-0.1808418184518814,"17":-0.48681387305259705,"18":-0.19806142151355743,"19":-0.5511968731880188,"20":-1.1029225587844849,"21":0.2572871446609497,"22":0.5319622755050659,"23":1.5151193141937256,"24":-0.8179922699928284,"25":0.2798692286014557,"26":-0.4447716474533081,"27":0.39219582080841064,"28":1.0781079530715942,"29":0.4872905910015106,"30":-1.9932833909988403,"31":0.5927571654319763,"32":-0.22336256504058838,"33":0.309133917093277,"34":-0.7364824414253235,"35":0.2572852671146393,"36":1.2947304248809814,"37":0.55331951379776,"38":0.07301411032676697,"39":0.18100544810295105,"40":-0.17739026248455048,"41":0.9045134782791138,"42":-0.9783364534378052,"43":-0.38343414664268494,"44":0.3856591582298279,"45":0.09603200852870941,"46":0.7465850114822388,"47":-0.8204562664031982,"48":0.29532742500305176,"49":0.4821232557296753,"50":-0.3951603174209595,"51":-0.7042436599731445,"52":-0.14337310194969177,"53":-0.062415461987257004,"54":-0.2942653298377991,"55":-0.2783654034137726,"56":0.5737859606742859,"57":0.204069584608078,"58":-0.5860568284988403,"59":-0.09256187081336975,"60":-0.42664772272109985,"61":-0.681893527507782,"62":0.24191182851791382,"63":-0.5393713712692261,"64":0.37722986936569214,"65":-1.0328465700149536,"66":0.4168834984302521,"67":0.4206998944282532,"68":-1.8075320720672607,"69":-0.21618163585662842,"70":-0.1617165207862854,"71":-0.01730828918516636,"72":-0.8112505078315735,"73":-0.5553132891654968,"74":1.4368491172790527,"75":-0.2811321020126343,"76":-0.24975116550922394,"77":0.294880211353302,"78":-0.19998201727867126,"79":-0.579565703868866,"80":0.023959806188941002,"81":-0.4100027084350586,"82":-0.06817793846130371,"83":-0.38828757405281067,"84":-1.8480721712112427,"85":-1.3171930313110352,"86":0.7599180936813354,"87":0.7545070648193359,"88":2.7117702960968018,"89":0.6945034861564636,"90":-0.49031564593315125,"91":-0.18138276040554047,"92":0.5356488227844238,"93":0.3398468792438507,"94":-0.002511540660634637,"95":1.179890751838684,"96":1.4272570610046387,"97":-0.36098387837409973,"98":-0.2483261674642563,"99":0.691877007484436,"100":0.28110837936401367,"101":0.4909922778606415,"102":-0.38285595178604126,"103":0.7840206027030945,"104":0.2005911022424698,"105":-0.3900609612464905,"106":-0.27827340364456177,"107":-0.46910518407821655,"108":-0.4132927656173706,"109":0.10227195173501968,"110":0.76384437084198,"111":0.2564520835876465,"112":-1.0088812112808228,"113":0.4608646035194397,"114":0.9531522989273071,"115":0.14794723689556122,"116":-0.34833553433418274,"117":-0.28407713770866394,"118":-0.6584102511405945,"119":-0.12913762032985687,"120":0.04270578920841217,"121":-1.6441974639892578,"122":0.5762037634849548,"123":-0.6807378530502319,"124":0.2802813649177551,"125":-0.5071530938148499,"126":-1.1998544931411743,"127":0.3506915867328644,"128":0.49316591024398804,"129":0.5044642090797424,"130":0.9033908247947693,"131":0.47427403926849365,"132":1.6686601638793945,"133":0.3349109888076782,"134":-1.5678919553756714,"135":0.9056488275527954,"136":-0.003513865638524294,"137":0.05082199349999428,"138":0.36039847135543823,"139":-0.37498709559440613,"140":1.8519657850265503,"141":0.7782949209213257,"142":-0.37772396206855774,"143":-0.09825316816568375,"144":0.46136125922203064,"145":1.6399589776992798,"146":-0.7395188212394714,"147":-0.5285736918449402,"148":-0.2363339066505432,"149":0.21334287524223328,"150":1.2276065349578857,"151":0.8624736070632935,"152":-0.7947348952293396,"153":-0.6236311197280884,"154":1.0477783679962158,"155":0.36790937185287476,"156":-0.4283211827278137,"157":-2.0837390422821045,"158":-0.43667852878570557,"159":0.10208398103713989,"160":0.662814199924469,"161":-1.0852571725845337,"162":0.6477404832839966,"163":0.08913683146238327,"164":-0.6834118366241455,"165":0.5383420586585999,"166":-0.4386214017868042,"167":0.672574520111084,"168":-2.492403984069824,"169":-0.5749452114105225,"170":0.9808517098426819,"171":0.516014039516449,"172":-0.35813045501708984,"173":-0.8265599012374878,"174":-0.6358775496482849,"175":0.6145219802856445,"176":-0.8335785269737244,"177":0.03963271155953407,"178":0.8829647302627563,"179":-1.1336266994476318,"180":-0.3374782204627991,"181":0.7329556345939636,"182":0.06097320839762688,"183":-0.9204955101013184,"184":0.749744713306427,"185":-0.5918969511985779,"186":0.8048630356788635,"187":-0.5000101923942566,"188":-1.8610888719558716,"189":-1.1502175331115723,"190":-0.23734831809997559,"191":0.04872245714068413,"192":-0.9893926978111267,"193":-0.5104252099990845,"194":0.14950087666511536,"195":-1.2841243743896484,"196":-1.2980808019638062,"197":-0.26652762293815613,"198":-0.13274452090263367,"199":1.4964064359664917,"200":0.34528064727783203,"201":0.5768941640853882,"202":-0.32125115394592285,"203":-0.07064371556043625,"204":0.5456443428993225,"205":-0.6332212686538696,"206":0.024857942014932632,"207":-0.15954770147800446,"208":-0.9117525815963745,"209":1.6076091527938843,"210":0.3716360628604889,"211":0.21370801329612732,"212":-0.015916911885142326,"213":0.6117836833000183,"214":0.5381386876106262,"215":-0.6086525321006775,"216":0.5731571316719055,"217":-0.21420812606811523,"218":-0.3710595667362213,"219":-0.15452329814434052,"220":0.3496033847332001,"221":0.5252123475074768,"222":-0.01298578828573227,"223":0.40684792399406433,"224":-0.2758309245109558,"225":-0.008729525841772556,"226":-0.3374902606010437,"227":-0.3871121108531952,"228":-1.628136157989502,"229":-0.10782160609960556,"230":0.7442557215690613,"231":0.36020994186401367,"232":0.40978705883026123,"233":0.2272098958492279,"234":0.3287743031978607,"235":0.07224933058023453,"236":0.9424545764923096,"237":0.09418323636054993,"238":-0.22659337520599365,"239":0.28235840797424316,"240":-0.05940302461385727,"241":0.9974969029426575,"242":-0.4181623160839081,"243":0.37832820415496826,"244":-0.21278390288352966,"245":0.9357507824897766,"246":0.4769720733165741,"247":-0.5126633644104004,"248":-0.9293534159660339,"249":-0.21616604924201965,"250":-0.9251610040664673,"251":-0.8075695037841797,"252":-1.249647617340088,"253":-0.1881989985704422,"254":0.6057577729225159,"255":-1.6728180646896362,"256":0.5276484489440918,"257":0.0652751624584198,"258":-0.4786308705806732,"259":-0.9917973279953003,"260":-0.22502103447914124,"261":0.9741029143333435,"262":0.32120299339294434,"263":-0.3460075855255127,"264":0.07075899094343185,"265":-0.6194871068000793,"266":0.38593217730522156,"267":-0.4392835199832916,"268":-0.17921824753284454,"269":-0.23591500520706177,"270":-0.3492717444896698,"271":-0.011936003342270851,"272":-0.3834313452243805,"273":-0.2111354023218155,"274":0.5616580247879028,"275":-0.6207047700881958,"276":-0.3344077169895172,"277":-0.010978473350405693,"278":0.1419266164302826,"279":-0.5836738348007202,"280":0.6351045370101929,"281":-0.9881024360656738,"282":-0.269045889377594,"283":-0.3750508427619934,"284":-0.8623596429824829,"285":-2.4011569023132324,"286":0.960852861404419,"287":1.6399027109146118,"288":1.1111924648284912,"289":1.2878053188323975,"290":0.6040909290313721,"291":0.02851131185889244,"292":0.8208205699920654,"293":0.3369683027267456,"294":-0.5097644329071045,"295":1.3260267972946167,"296":1.3376920223236084,"297":-0.16683048009872437,"298":-0.1642526388168335,"299":1.172837257385254,"300":0.6285775899887085,"301":0.975748598575592,"302":0.10809697210788727,"303":-0.003904083976522088,"304":0.03696266561746597,"305":0.2501298785209656,"306":0.5148442387580872,"307":-1.5401983261108398,"308":-1.8049581050872803,"309":0.13738462328910828,"310":-0.13421566784381866,"311":-0.12442722916603088,"312":-1.0636060237884521,"313":-0.3372848629951477,"314":0.9643560647964478,"315":-0.6425990462303162,"316":0.9982733130455017,"317":-0.539802074432373,"318":-0.12060094624757767,"319":-0.6274275183677673,"320":0.24170097708702087,"321":1.4728575944900513,"322":-0.9209685921669006,"323":-0.7800171375274658,"324":0.35648101568222046,"325":1.322924256324768,"326":-0.09740917384624481,"327":-1.0767844915390015,"328":-0.48867347836494446,"329":-0.07750765979290009,"330":-0.1371421217918396,"331":0.4529547393321991,"332":-2.0059566497802734,"333":-0.886040210723877,"334":0.6818314790725708,"335":-1.3334941864013672,"336":-0.9772086143493652,"337":-0.29534101486206055,"338":-0.8790398240089417,"339":-1.2203847169876099,"340":-0.7664508819580078,"341":-0.47570034861564636,"342":0.12704390287399292,"343":0.011695978231728077,"344":-0.6590970158576965,"345":0.23617880046367645,"346":0.4958503544330597,"347":0.6081507205963135,"348":0.4469459354877472,"349":0.1914566159248352,"350":-0.913271963596344,"351":-0.8251373171806335,"352":0.41570690274238586,"353":0.15380360186100006,"354":-0.47816526889801025,"355":0.17734269797801971,"356":-0.609086811542511,"357":0.283395916223526,"358":0.695796012878418,"359":1.3263741731643677,"360":0.3480469584465027,"361":1.1122043132781982,"362":0.2776122987270355,"363":-0.3048449456691742,"364":-0.14682462811470032,"365":0.7424240112304688,"366":-0.9044120907783508,"367":0.012983246706426144,"368":0.09107962250709534,"369":1.04802405834198,"370":-0.4887017011642456,"371":-0.4811936020851135,"372":0.3081667721271515,"373":0.6103249788284302,"374":0.009153593331575394,"375":0.11074955761432648,"376":-0.5224647521972656,"377":-0.3142171800136566,"378":0.05405990034341812,"379":-0.13595251739025116,"380":0.3811132609844208,"381":1.2812367677688599,"382":0.7611836791038513,"383":0.5427257418632507,"384":1.2854479551315308,"385":0.9190563559532166,"386":-0.09795977920293808,"387":-1.3150478601455688,"388":-1.9050273895263672,"389":1.3113775253295898,"390":-0.1457969844341278,"391":0.1979970932006836,"392":0.8927934169769287,"393":0.7368159890174866,"394":-0.11490819603204727,"395":0.4521557092666626,"396":-1.6060752868652344,"397":-0.5602372288703918,"398":0.5975327491760254,"399":-1.0291380882263184}},"cellActivationBias":{"rows":20,"columns":1,"weights":{"0":-0.390376478433609,"1":1.854789137840271,"2":2.486309051513672,"3":3.901813507080078,"4":-1.1812336444854736,"5":1.1547718048095703,"6":-2.5591928958892822,"7":-1.418616771697998,"8":0.7848902940750122,"9":3.3894476890563965,"10":-0.20672425627708435,"11":-1.2608144283294678,"12":2.0400314331054688,"13":3.4341847896575928,"14":0.6492838263511658,"15":2.5343329906463623,"16":1.2270922660827637,"17":-0.7555602788925171,"18":1.0939432382583618,"19":-0.8257132768630981}}}],"outputConnector":{"rows":1,"columns":20,"weights":{"0":0.7862027287483215,"1":3.0416452884674072,"2":0.45583856105804443,"3":44.03250503540039,"4":-4.029383659362793,"5":1.2605446577072144,"6":-0.29336801171302795,"7":32.86094665527344,"8":14.369915962219238,"9":1.9763680696487427,"10":2.1781599521636963,"11":5.4838457107543945,"12":-0.0037676729261875153,"13":0.5120534896850586,"14":0.2315991371870041,"15":0.458559513092041,"16":3.012887954711914,"17":-0.6177336573600769,"18":0.43848007917404175,"19":0.8265355229377747}},"output":{"rows":1,"columns":1,"weights":{"0":-23.327049255371094}},"inputLookup":null,"inputLookupLength":null,"outputLookup":null,"outputLookupLength":null}